digraph Tree {
node [shape=box, style="filled, rounded", color="black", fontname=helvetica] ;
edge [fontname=helvetica] ;
0 [label="nic_dep <= 0.5\ngini = 0.45\nsamples = 2175\nvalue = [742, 1433]\nclass = Show", fillcolor="#399de57b"] ;
1 [label="ethnicity_not hispanic <= 0.5\ngini = 0.493\nsamples = 818\nvalue = [360, 458]\nclass = Show", fillcolor="#399de537"] ;
0 -> 1 [labeldistance=2.5, labelangle=45, headlabel="True"] ;
2 [label="craigslist <= 0.5\ngini = 0.336\nsamples = 75\nvalue = [59, 16]\nclass = No Show", fillcolor="#e58139ba"] ;
1 -> 2 ;
3 [label="alc_dep <= 0.5\ngini = 0.23\nsamples = 68\nvalue = [59, 9]\nclass = No Show", fillcolor="#e58139d8"] ;
2 -> 3 ;
4 [label="age <= 48.5\ngini = 0.092\nsamples = 62\nvalue = [59, 3]\nclass = No Show", fillcolor="#e58139f2"] ;
3 -> 4 ;
5 [label="(...)", fillcolor="#C0C0C0"] ;
4 -> 5 ;
10 [label="(...)", fillcolor="#C0C0C0"] ;
4 -> 10 ;
15 [label="gini = 0.0\nsamples = 6\nvalue = [0, 6]\nclass = Show", fillcolor="#399de5ff"] ;
3 -> 15 ;
16 [label="gini = 0.0\nsamples = 7\nvalue = [0, 7]\nclass = Show", fillcolor="#399de5ff"] ;
2 -> 16 ;
17 [label="flyer <= 0.5\ngini = 0.482\nsamples = 743\nvalue = [301, 442]\nclass = Show", fillcolor="#399de551"] ;
1 -> 17 ;
18 [label="craigslist <= 0.5\ngini = 0.496\nsamples = 580\nvalue = [263, 317]\nclass = Show", fillcolor="#399de52b"] ;
17 -> 18 ;
19 [label="referral <= 0.5\ngini = 0.498\nsamples = 408\nvalue = [218, 190]\nclass = No Show", fillcolor="#e5813921"] ;
18 -> 19 ;
20 [label="(...)", fillcolor="#C0C0C0"] ;
19 -> 20 ;
135 [label="(...)", fillcolor="#C0C0C0"] ;
19 -> 135 ;
200 [label="monthly_income <= 1404.0\ngini = 0.386\nsamples = 172\nvalue = [45, 127]\nclass = Show", fillcolor="#399de5a5"] ;
18 -> 200 ;
201 [label="(...)", fillcolor="#C0C0C0"] ;
200 -> 201 ;
264 [label="(...)", fillcolor="#C0C0C0"] ;
200 -> 264 ;
287 [label="bmi <= 22.307\ngini = 0.358\nsamples = 163\nvalue = [38, 125]\nclass = Show", fillcolor="#399de5b1"] ;
17 -> 287 ;
288 [label="audit_score <= 13.0\ngini = 0.444\nsamples = 6\nvalue = [4, 2]\nclass = No Show", fillcolor="#e581397f"] ;
287 -> 288 ;
289 [label="(...)", fillcolor="#C0C0C0"] ;
288 -> 289 ;
290 [label="(...)", fillcolor="#C0C0C0"] ;
288 -> 290 ;
291 [label="monthly_income <= 1050.0\ngini = 0.339\nsamples = 157\nvalue = [34, 123]\nclass = Show", fillcolor="#399de5b9"] ;
287 -> 291 ;
292 [label="(...)", fillcolor="#C0C0C0"] ;
291 -> 292 ;
337 [label="(...)", fillcolor="#C0C0C0"] ;
291 -> 337 ;
368 [label="age <= 43.5\ngini = 0.405\nsamples = 1357\nvalue = [382, 975]\nclass = Show", fillcolor="#399de59b"] ;
0 -> 368 [labeldistance=2.5, labelangle=-45, headlabel="False"] ;
369 [label="facebook_post <= 0.5\ngini = 0.438\nsamples = 777\nvalue = [252, 525]\nclass = Show", fillcolor="#399de585"] ;
368 -> 369 ;
370 [label="bmi <= 29.804\ngini = 0.436\nsamples = 774\nvalue = [249, 525]\nclass = Show", fillcolor="#399de586"] ;
369 -> 370 ;
371 [label="bmi <= 29.332\ngini = 0.452\nsamples = 561\nvalue = [194, 367]\nclass = Show", fillcolor="#399de578"] ;
370 -> 371 ;
372 [label="(...)", fillcolor="#C0C0C0"] ;
371 -> 372 ;
549 [label="(...)", fillcolor="#C0C0C0"] ;
371 -> 549 ;
654 [label="craigslist <= 0.5\ngini = 0.383\nsamples = 213\nvalue = [55, 158]\nclass = Show", fillcolor="#399de5a6"] ;
370 -> 654 ;
655 [label="(...)", fillcolor="#C0C0C0"] ;
654 -> 655 ;
716 [label="(...)", fillcolor="#C0C0C0"] ;
654 -> 716 ;
759 [label="gini = 0.0\nsamples = 3\nvalue = [3, 0]\nclass = No Show", fillcolor="#e58139ff"] ;
369 -> 759 ;
760 [label="cigs_per_day <= 5.5\ngini = 0.348\nsamples = 580\nvalue = [130, 450]\nclass = Show", fillcolor="#399de5b5"] ;
368 -> 760 ;
761 [label="bmi <= 30.308\ngini = 0.49\nsamples = 42\nvalue = [18, 24]\nclass = Show", fillcolor="#399de540"] ;
760 -> 761 ;
762 [label="previously_participated <= 0.5\ngini = 0.499\nsamples = 31\nvalue = [16, 15]\nclass = No Show", fillcolor="#e5813910"] ;
761 -> 762 ;
763 [label="(...)", fillcolor="#C0C0C0"] ;
762 -> 763 ;
780 [label="(...)", fillcolor="#C0C0C0"] ;
762 -> 780 ;
781 [label="flyer <= 0.5\ngini = 0.298\nsamples = 11\nvalue = [2, 9]\nclass = Show", fillcolor="#399de5c6"] ;
761 -> 781 ;
782 [label="(...)", fillcolor="#C0C0C0"] ;
781 -> 782 ;
783 [label="(...)", fillcolor="#C0C0C0"] ;
781 -> 783 ;
784 [label="employment_part time <= 0.5\ngini = 0.33\nsamples = 538\nvalue = [112, 426]\nclass = Show", fillcolor="#399de5bc"] ;
760 -> 784 ;
785 [label="monthly_income <= 752.5\ngini = 0.3\nsamples = 447\nvalue = [82, 365]\nclass = Show", fillcolor="#399de5c6"] ;
784 -> 785 ;
786 [label="(...)", fillcolor="#C0C0C0"] ;
785 -> 786 ;
859 [label="(...)", fillcolor="#C0C0C0"] ;
785 -> 859 ;
968 [label="cigs_per_day <= 22.5\ngini = 0.442\nsamples = 91\nvalue = [30, 61]\nclass = Show", fillcolor="#399de582"] ;
784 -> 968 ;
969 [label="(...)", fillcolor="#C0C0C0"] ;
968 -> 969 ;
1002 [label="(...)", fillcolor="#C0C0C0"] ;
968 -> 1002 ;
}