digraph Tree {
node [shape=box, style="filled, rounded", color="black", fontname=helvetica] ;
edge [fontname=helvetica] ;
0 [label="nic_dep <= 0.5\ngini = 0.459\nsamples = 1366\nvalue = [776, 1399]\nclass = Show", fillcolor="#399de572"] ;
1 [label="flyer <= 0.5\ngini = 0.498\nsamples = 502\nvalue = [372, 418]\nclass = Show", fillcolor="#399de51c"] ;
0 -> 1 [labeldistance=2.5, labelangle=45, headlabel="True"] ;
2 [label="monthly_income <= 2100.0\ngini = 0.499\nsamples = 401\nvalue = [324, 303]\nclass = No Show", fillcolor="#e5813911"] ;
1 -> 2 ;
3 [label="craigslist <= 0.5\ngini = 0.49\nsamples = 318\nvalue = [280, 211]\nclass = No Show", fillcolor="#e581393f"] ;
2 -> 3 ;
4 [label="bmi <= 42.247\ngini = 0.45\nsamples = 236\nvalue = [240, 125]\nclass = No Show", fillcolor="#e581397a"] ;
3 -> 4 ;
5 [label="monthly_income <= 241.5\ngini = 0.461\nsamples = 226\nvalue = [222, 125]\nclass = No Show", fillcolor="#e581396f"] ;
4 -> 5 ;
6 [label="referral <= 0.5\ngini = 0.498\nsamples = 53\nvalue = [41, 46]\nclass = Show", fillcolor="#399de51c"] ;
5 -> 6 ;
7 [label="(...)", fillcolor="#C0C0C0"] ;
6 -> 7 ;
34 [label="(...)", fillcolor="#C0C0C0"] ;
6 -> 34 ;
55 [label="cigs_per_day <= 13.5\ngini = 0.423\nsamples = 173\nvalue = [181, 79]\nclass = No Show", fillcolor="#e5813990"] ;
5 -> 55 ;
56 [label="(...)", fillcolor="#C0C0C0"] ;
55 -> 56 ;
135 [label="(...)", fillcolor="#C0C0C0"] ;
55 -> 135 ;
160 [label="gini = 0.0\nsamples = 10\nvalue = [18, 0]\nclass = No Show", fillcolor="#e58139ff"] ;
4 -> 160 ;
161 [label="bmi <= 19.282\ngini = 0.433\nsamples = 82\nvalue = [40, 86]\nclass = Show", fillcolor="#399de588"] ;
3 -> 161 ;
162 [label="gini = 0.0\nsamples = 3\nvalue = [4, 0]\nclass = No Show", fillcolor="#e58139ff"] ;
161 -> 162 ;
163 [label="sex_female <= 0.5\ngini = 0.416\nsamples = 79\nvalue = [36, 86]\nclass = Show", fillcolor="#399de594"] ;
161 -> 163 ;
164 [label="audit_score <= 8.5\ngini = 0.496\nsamples = 39\nvalue = [27, 32]\nclass = Show", fillcolor="#399de528"] ;
163 -> 164 ;
165 [label="(...)", fillcolor="#C0C0C0"] ;
164 -> 165 ;
184 [label="(...)", fillcolor="#C0C0C0"] ;
164 -> 184 ;
199 [label="bmi <= 39.927\ngini = 0.245\nsamples = 40\nvalue = [9, 54]\nclass = Show", fillcolor="#399de5d4"] ;
163 -> 199 ;
200 [label="(...)", fillcolor="#C0C0C0"] ;
199 -> 200 ;
215 [label="(...)", fillcolor="#C0C0C0"] ;
199 -> 215 ;
220 [label="cigs_per_day <= 6.5\ngini = 0.438\nsamples = 83\nvalue = [44, 92]\nclass = Show", fillcolor="#399de585"] ;
2 -> 220 ;
221 [label="bmi <= 25.147\ngini = 0.309\nsamples = 50\nvalue = [17, 72]\nclass = Show", fillcolor="#399de5c3"] ;
220 -> 221 ;
222 [label="gini = 0.0\nsamples = 11\nvalue = [0, 22]\nclass = Show", fillcolor="#399de5ff"] ;
221 -> 222 ;
223 [label="audit_score <= 1.0\ngini = 0.379\nsamples = 39\nvalue = [17, 50]\nclass = Show", fillcolor="#399de5a8"] ;
221 -> 223 ;
224 [label="monthly_income <= 2450.0\ngini = 0.208\nsamples = 9\nvalue = [2, 15]\nclass = Show", fillcolor="#399de5dd"] ;
223 -> 224 ;
225 [label="(...)", fillcolor="#C0C0C0"] ;
224 -> 225 ;
228 [label="(...)", fillcolor="#C0C0C0"] ;
224 -> 228 ;
229 [label="craigslist <= 0.5\ngini = 0.42\nsamples = 30\nvalue = [15, 35]\nclass = Show", fillcolor="#399de592"] ;
223 -> 229 ;
230 [label="(...)", fillcolor="#C0C0C0"] ;
229 -> 230 ;
257 [label="(...)", fillcolor="#C0C0C0"] ;
229 -> 257 ;
258 [label="craigslist <= 0.5\ngini = 0.489\nsamples = 33\nvalue = [27, 20]\nclass = No Show", fillcolor="#e5813942"] ;
220 -> 258 ;
259 [label="referral <= 0.5\ngini = 0.401\nsamples = 24\nvalue = [26, 10]\nclass = No Show", fillcolor="#e581399d"] ;
258 -> 259 ;
260 [label="audit_score <= 0.5\ngini = 0.191\nsamples = 19\nvalue = [25, 3]\nclass = No Show", fillcolor="#e58139e0"] ;
259 -> 260 ;
261 [label="(...)", fillcolor="#C0C0C0"] ;
260 -> 261 ;
266 [label="(...)", fillcolor="#C0C0C0"] ;
260 -> 266 ;
273 [label="monthly_income <= 7250.0\ngini = 0.219\nsamples = 5\nvalue = [1, 7]\nclass = Show", fillcolor="#399de5db"] ;
259 -> 273 ;
274 [label="(...)", fillcolor="#C0C0C0"] ;
273 -> 274 ;
275 [label="(...)", fillcolor="#C0C0C0"] ;
273 -> 275 ;
276 [label="bmi <= 23.946\ngini = 0.165\nsamples = 9\nvalue = [1, 10]\nclass = Show", fillcolor="#399de5e6"] ;
258 -> 276 ;
277 [label="gini = 0.0\nsamples = 4\nvalue = [0, 6]\nclass = Show", fillcolor="#399de5ff"] ;
276 -> 277 ;
278 [label="monthly_income <= 2380.0\ngini = 0.32\nsamples = 5\nvalue = [1, 4]\nclass = Show", fillcolor="#399de5bf"] ;
276 -> 278 ;
279 [label="(...)", fillcolor="#C0C0C0"] ;
278 -> 279 ;
280 [label="(...)", fillcolor="#C0C0C0"] ;
278 -> 280 ;
281 [label="sex_female <= 0.5\ngini = 0.416\nsamples = 101\nvalue = [48, 115]\nclass = Show", fillcolor="#399de595"] ;
1 -> 281 ;
282 [label="cigs_per_day <= 15.0\ngini = 0.335\nsamples = 59\nvalue = [20, 74]\nclass = Show", fillcolor="#399de5ba"] ;
281 -> 282 ;
283 [label="referral <= 0.5\ngini = 0.349\nsamples = 44\nvalue = [16, 55]\nclass = Show", fillcolor="#399de5b5"] ;
282 -> 283 ;
284 [label="audit_score <= 3.5\ngini = 0.351\nsamples = 40\nvalue = [15, 51]\nclass = Show", fillcolor="#399de5b4"] ;
283 -> 284 ;
285 [label="bmi <= 22.192\ngini = 0.198\nsamples = 17\nvalue = [3, 24]\nclass = Show", fillcolor="#399de5df"] ;
284 -> 285 ;
286 [label="(...)", fillcolor="#C0C0C0"] ;
285 -> 286 ;
287 [label="(...)", fillcolor="#C0C0C0"] ;
285 -> 287 ;
294 [label="cigs_per_day <= 2.5\ngini = 0.426\nsamples = 23\nvalue = [12, 27]\nclass = Show", fillcolor="#399de58e"] ;
284 -> 294 ;
295 [label="(...)", fillcolor="#C0C0C0"] ;
294 -> 295 ;
310 [label="(...)", fillcolor="#C0C0C0"] ;
294 -> 310 ;
311 [label="audit_score <= 18.5\ngini = 0.32\nsamples = 4\nvalue = [1, 4]\nclass = Show", fillcolor="#399de5bf"] ;
283 -> 311 ;
312 [label="gini = 0.0\nsamples = 2\nvalue = [0, 2]\nclass = Show", fillcolor="#399de5ff"] ;
311 -> 312 ;
313 [label="gini = 0.444\nsamples = 2\nvalue = [1, 2]\nclass = Show", fillcolor="#399de57f"] ;
311 -> 313 ;
314 [label="referral <= 0.5\ngini = 0.287\nsamples = 15\nvalue = [4, 19]\nclass = Show", fillcolor="#399de5c9"] ;
282 -> 314 ;
315 [label="bmi <= 33.475\ngini = 0.172\nsamples = 14\nvalue = [2, 19]\nclass = Show", fillcolor="#399de5e4"] ;
314 -> 315 ;
316 [label="audit_score <= 8.0\ngini = 0.298\nsamples = 7\nvalue = [2, 9]\nclass = Show", fillcolor="#399de5c6"] ;
315 -> 316 ;
317 [label="(...)", fillcolor="#C0C0C0"] ;
316 -> 317 ;
322 [label="(...)", fillcolor="#C0C0C0"] ;
316 -> 322 ;
323 [label="gini = 0.0\nsamples = 7\nvalue = [0, 10]\nclass = Show", fillcolor="#399de5ff"] ;
315 -> 323 ;
324 [label="gini = 0.0\nsamples = 1\nvalue = [2, 0]\nclass = No Show", fillcolor="#e58139ff"] ;
314 -> 324 ;
325 [label="referral <= 0.5\ngini = 0.482\nsamples = 42\nvalue = [28, 41]\nclass = Show", fillcolor="#399de551"] ;
281 -> 325 ;
326 [label="audit_score <= 0.5\ngini = 0.484\nsamples = 41\nvalue = [28, 40]\nclass = Show", fillcolor="#399de54d"] ;
325 -> 326 ;
327 [label="cigs_per_day <= 30.0\ngini = 0.386\nsamples = 13\nvalue = [17, 6]\nclass = No Show", fillcolor="#e58139a5"] ;
326 -> 327 ;
328 [label="cigs_per_day <= 10.0\ngini = 0.42\nsamples = 12\nvalue = [14, 6]\nclass = No Show", fillcolor="#e5813992"] ;
327 -> 328 ;
329 [label="(...)", fillcolor="#C0C0C0"] ;
328 -> 329 ;
334 [label="(...)", fillcolor="#C0C0C0"] ;
328 -> 334 ;
339 [label="gini = 0.0\nsamples = 1\nvalue = [3, 0]\nclass = No Show", fillcolor="#e58139ff"] ;
327 -> 339 ;
340 [label="monthly_income <= 900.0\ngini = 0.369\nsamples = 28\nvalue = [11, 34]\nclass = Show", fillcolor="#399de5ac"] ;
326 -> 340 ;
341 [label="craigslist <= 0.5\ngini = 0.471\nsamples = 17\nvalue = [11, 18]\nclass = Show", fillcolor="#399de563"] ;
340 -> 341 ;
342 [label="(...)", fillcolor="#C0C0C0"] ;
341 -> 342 ;
355 [label="(...)", fillcolor="#C0C0C0"] ;
341 -> 355 ;
358 [label="gini = 0.0\nsamples = 11\nvalue = [0, 16]\nclass = Show", fillcolor="#399de5ff"] ;
340 -> 358 ;
359 [label="gini = 0.0\nsamples = 1\nvalue = [0, 1]\nclass = Show", fillcolor="#399de5ff"] ;
325 -> 359 ;
360 [label="monthly_income <= 197.5\ngini = 0.413\nsamples = 864\nvalue = [404, 981]\nclass = Show", fillcolor="#399de596"] ;
0 -> 360 [labeldistance=2.5, labelangle=-45, headlabel="False"] ;
361 [label="audit_score <= 35.5\ngini = 0.326\nsamples = 232\nvalue = [78, 302]\nclass = Show", fillcolor="#399de5bd"] ;
360 -> 361 ;
362 [label="flyer <= 0.5\ngini = 0.319\nsamples = 230\nvalue = [75, 302]\nclass = Show", fillcolor="#399de5c0"] ;
361 -> 362 ;
363 [label="cigs_per_day <= 24.5\ngini = 0.323\nsamples = 188\nvalue = [62, 244]\nclass = Show", fillcolor="#399de5be"] ;
362 -> 363 ;
364 [label="bmi <= 27.435\ngini = 0.365\nsamples = 141\nvalue = [54, 171]\nclass = Show", fillcolor="#399de5ae"] ;
363 -> 364 ;
365 [label="audit_score <= 8.0\ngini = 0.206\nsamples = 48\nvalue = [9, 68]\nclass = Show", fillcolor="#399de5dd"] ;
364 -> 365 ;
366 [label="(...)", fillcolor="#C0C0C0"] ;
365 -> 366 ;
381 [label="(...)", fillcolor="#C0C0C0"] ;
365 -> 381 ;
386 [label="sex_female <= 0.5\ngini = 0.423\nsamples = 93\nvalue = [45, 103]\nclass = Show", fillcolor="#399de590"] ;
364 -> 386 ;
387 [label="(...)", fillcolor="#C0C0C0"] ;
386 -> 387 ;
416 [label="(...)", fillcolor="#C0C0C0"] ;
386 -> 416 ;
459 [label="referral <= 0.5\ngini = 0.178\nsamples = 47\nvalue = [8, 73]\nclass = Show", fillcolor="#399de5e3"] ;
363 -> 459 ;
460 [label="gini = 0.0\nsamples = 8\nvalue = [0, 12]\nclass = Show", fillcolor="#399de5ff"] ;
459 -> 460 ;
461 [label="audit_score <= 32.5\ngini = 0.205\nsamples = 39\nvalue = [8, 61]\nclass = Show", fillcolor="#399de5de"] ;
459 -> 461 ;
462 [label="(...)", fillcolor="#C0C0C0"] ;
461 -> 462 ;
481 [label="(...)", fillcolor="#C0C0C0"] ;
461 -> 481 ;
484 [label="sex_female <= 0.5\ngini = 0.299\nsamples = 42\nvalue = [13, 58]\nclass = Show", fillcolor="#399de5c6"] ;
362 -> 484 ;
485 [label="cigs_per_day <= 30.0\ngini = 0.363\nsamples = 15\nvalue = [5, 16]\nclass = Show", fillcolor="#399de5af"] ;
484 -> 485 ;
486 [label="audit_score <= 27.5\ngini = 0.32\nsamples = 14\nvalue = [4, 16]\nclass = Show", fillcolor="#399de5bf"] ;
485 -> 486 ;
487 [label="(...)", fillcolor="#C0C0C0"] ;
486 -> 487 ;
494 [label="(...)", fillcolor="#C0C0C0"] ;
486 -> 494 ;
495 [label="gini = 0.0\nsamples = 1\nvalue = [1, 0]\nclass = No Show", fillcolor="#e58139ff"] ;
485 -> 495 ;
496 [label="audit_score <= 2.5\ngini = 0.269\nsamples = 27\nvalue = [8, 42]\nclass = Show", fillcolor="#399de5ce"] ;
484 -> 496 ;
497 [label="cigs_per_day <= 17.5\ngini = 0.393\nsamples = 15\nvalue = [7, 19]\nclass = Show", fillcolor="#399de5a1"] ;
496 -> 497 ;
498 [label="(...)", fillcolor="#C0C0C0"] ;
497 -> 498 ;
499 [label="(...)", fillcolor="#C0C0C0"] ;
497 -> 499 ;
504 [label="monthly_income <= 96.0\ngini = 0.08\nsamples = 12\nvalue = [1, 23]\nclass = Show", fillcolor="#399de5f4"] ;
496 -> 504 ;
505 [label="(...)", fillcolor="#C0C0C0"] ;
504 -> 505 ;
508 [label="(...)", fillcolor="#C0C0C0"] ;
504 -> 508 ;
509 [label="gini = 0.0\nsamples = 2\nvalue = [3, 0]\nclass = No Show", fillcolor="#e58139ff"] ;
361 -> 509 ;
510 [label="audit_score <= 37.5\ngini = 0.438\nsamples = 632\nvalue = [326, 679]\nclass = Show", fillcolor="#399de585"] ;
360 -> 510 ;
511 [label="bmi <= 18.508\ngini = 0.435\nsamples = 629\nvalue = [320, 679]\nclass = Show", fillcolor="#399de587"] ;
510 -> 511 ;
512 [label="monthly_income <= 1086.5\ngini = 0.355\nsamples = 5\nvalue = [10, 3]\nclass = No Show", fillcolor="#e58139b3"] ;
511 -> 512 ;
513 [label="bmi <= 17.793\ngini = 0.165\nsamples = 4\nvalue = [10, 1]\nclass = No Show", fillcolor="#e58139e6"] ;
512 -> 513 ;
514 [label="gini = 0.0\nsamples = 1\nvalue = [2, 0]\nclass = No Show", fillcolor="#e58139ff"] ;
513 -> 514 ;
515 [label="gini = 0.198\nsamples = 3\nvalue = [8, 1]\nclass = No Show", fillcolor="#e58139df"] ;
513 -> 515 ;
516 [label="gini = 0.0\nsamples = 1\nvalue = [0, 2]\nclass = Show", fillcolor="#399de5ff"] ;
512 -> 516 ;
517 [label="flyer <= 0.5\ngini = 0.431\nsamples = 624\nvalue = [310, 676]\nclass = Show", fillcolor="#399de58a"] ;
511 -> 517 ;
518 [label="bmi <= 34.396\ngini = 0.411\nsamples = 488\nvalue = [223, 549]\nclass = Show", fillcolor="#399de597"] ;
517 -> 518 ;
519 [label="monthly_income <= 1750.0\ngini = 0.425\nsamples = 400\nvalue = [193, 437]\nclass = Show", fillcolor="#399de58e"] ;
518 -> 519 ;
520 [label="(...)", fillcolor="#C0C0C0"] ;
519 -> 520 ;
741 [label="(...)", fillcolor="#C0C0C0"] ;
519 -> 741 ;
806 [label="monthly_income <= 3700.0\ngini = 0.333\nsamples = 88\nvalue = [30, 112]\nclass = Show", fillcolor="#399de5bb"] ;
518 -> 806 ;
807 [label="(...)", fillcolor="#C0C0C0"] ;
806 -> 807 ;
854 [label="(...)", fillcolor="#C0C0C0"] ;
806 -> 854 ;
855 [label="bmi <= 36.844\ngini = 0.483\nsamples = 136\nvalue = [87, 127]\nclass = Show", fillcolor="#399de550"] ;
517 -> 855 ;
856 [label="monthly_income <= 203.5\ngini = 0.474\nsamples = 128\nvalue = [76, 121]\nclass = Show", fillcolor="#399de55f"] ;
855 -> 856 ;
857 [label="(...)", fillcolor="#C0C0C0"] ;
856 -> 857 ;
862 [label="(...)", fillcolor="#C0C0C0"] ;
856 -> 862 ;
959 [label="monthly_income <= 1355.0\ngini = 0.457\nsamples = 8\nvalue = [11, 6]\nclass = No Show", fillcolor="#e5813974"] ;
855 -> 959 ;
960 [label="(...)", fillcolor="#C0C0C0"] ;
959 -> 960 ;
967 [label="(...)", fillcolor="#C0C0C0"] ;
959 -> 967 ;
968 [label="gini = 0.0\nsamples = 3\nvalue = [6, 0]\nclass = No Show", fillcolor="#e58139ff"] ;
510 -> 968 ;
}